digraph Tree {
node [shape=box, style="rounded", color="black", fontname=helvetica] ;
edge [fontname=helvetica] ;
0 [label="petal length (cm) <= 2.6\ngini = 0.444\nsamples = 75\nvalue = [50, 25]"] ;
1 [label="gini = 0.0\nsamples = 50\nvalue = [50, 0]"] ;
0 -> 1 [labeldistance=2.5, labelangle=45, headlabel="True"] ;
2 [label="gini = 0.0\nsamples = 25\nvalue = [0, 25]"] ;
0 -> 2 [labeldistance=2.5, labelangle=-45, headlabel="False"] ;
}